digraph Tree {
node [shape=box, fontname="helvetica"] ;
edge [fontname="helvetica"] ;
0 [label="x[7] <= 2.5\ngini = 0.682\nsamples = 9720\nvalue = [3243, 1, 243, 3175, 3058]"] ;
1 [label="x[1] <= 3.5\ngini = 0.535\nsamples = 6477\nvalue = [0, 1, 243, 3175, 3058]"] ;
0 -> 1 [labeldistance=2.5, labelangle=45, headlabel="True"] ;
2 [label="x[0] <= 2.5\ngini = 0.458\nsamples = 3878\nvalue = [0, 1, 243, 2678, 956]"] ;
1 -> 2 ;
3 [label="x[1] <= 2.5\ngini = 0.294\nsamples = 2570\nvalue = [0, 1, 243, 2138, 188]"] ;
2 -> 3 ;
4 [label="x[7] <= 1.5\ngini = 0.197\nsamples = 1703\nvalue = [0, 1, 188, 1514, 0]"] ;
3 -> 4 ;
5 [label="gini = 0.0\nsamples = 847\nvalue = [0, 0, 0, 847, 0]"] ;
4 -> 5 ;
6 [label="x[6] <= 2.5\ngini = 0.345\nsamples = 856\nvalue = [0, 1, 188, 667, 0]"] ;
4 -> 6 ;
7 [label="x[4] <= 1.5\ngini = 0.448\nsamples = 560\nvalue = [0, 1, 188, 371, 0]"] ;
6 -> 7 ;
8 [label="x[5] <= 1.5\ngini = 0.462\nsamples = 186\nvalue = [0, 1, 120, 65, 0]"] ;
7 -> 8 ;
9 [label="x[3] <= 1.5\ngini = 0.022\nsamples = 92\nvalue = [0, 1, 91, 0, 0]"] ;
8 -> 9 ;
10 [label="x[2] <= 1.5\ngini = 0.087\nsamples = 22\nvalue = [0, 1, 21, 0, 0]"] ;
9 -> 10 ;
11 [label="x[1] <= 1.5\ngini = 0.375\nsamples = 4\nvalue = [0, 1, 3, 0, 0]"] ;
10 -> 11 ;
12 [label="gini = 0.0\nsamples = 1\nvalue = [0, 1, 0, 0, 0]"] ;
11 -> 12 ;
13 [label="gini = 0.0\nsamples = 3\nvalue = [0, 0, 3, 0, 0]"] ;
11 -> 13 ;
14 [label="gini = 0.0\nsamples = 18\nvalue = [0, 0, 18, 0, 0]"] ;
10 -> 14 ;
15 [label="gini = 0.0\nsamples = 70\nvalue = [0, 0, 70, 0, 0]"] ;
9 -> 15 ;
16 [label="x[3] <= 2.5\ngini = 0.427\nsamples = 94\nvalue = [0, 0, 29, 65, 0]"] ;
8 -> 16 ;
17 [label="x[2] <= 2.5\ngini = 0.466\nsamples = 46\nvalue = [0, 0, 29, 17, 0]"] ;
16 -> 17 ;
18 [label="gini = 0.0\nsamples = 23\nvalue = [0, 0, 23, 0, 0]"] ;
17 -> 18 ;
19 [label="x[2] <= 3.5\ngini = 0.386\nsamples = 23\nvalue = [0, 0, 6, 17, 0]"] ;
17 -> 19 ;
20 [label="x[3] <= 1.5\ngini = 0.5\nsamples = 12\nvalue = [0, 0, 6, 6, 0]"] ;
19 -> 20 ;
21 [label="gini = 0.0\nsamples = 6\nvalue = [0, 0, 6, 0, 0]"] ;
20 -> 21 ;
22 [label="gini = 0.0\nsamples = 6\nvalue = [0, 0, 0, 6, 0]"] ;
20 -> 22 ;
23 [label="gini = 0.0\nsamples = 11\nvalue = [0, 0, 0, 11, 0]"] ;
19 -> 23 ;
24 [label="gini = 0.0\nsamples = 48\nvalue = [0, 0, 0, 48, 0]"] ;
16 -> 24 ;
25 [label="x[3] <= 2.5\ngini = 0.298\nsamples = 374\nvalue = [0, 0, 68, 306, 0]"] ;
7 -> 25 ;
26 [label="x[2] <= 2.5\ngini = 0.469\nsamples = 181\nvalue = [0, 0, 68, 113, 0]"] ;
25 -> 26 ;
27 [label="x[4] <= 2.5\ngini = 0.464\nsamples = 90\nvalue = [0, 0, 57, 33, 0]"] ;
26 -> 27 ;
28 [label="gini = 0.0\nsamples = 46\nvalue = [0, 0, 46, 0, 0]"] ;
27 -> 28 ;
29 [label="x[3] <= 1.5\ngini = 0.375\nsamples = 44\nvalue = [0, 0, 11, 33, 0]"] ;
27 -> 29 ;
30 [label="x[2] <= 1.5\ngini = 0.5\nsamples = 22\nvalue = [0, 0, 11, 11, 0]"] ;
29 -> 30 ;
31 [label="gini = 0.0\nsamples = 11\nvalue = [0, 0, 11, 0, 0]"] ;
30 -> 31 ;
32 [label="gini = 0.0\nsamples = 11\nvalue = [0, 0, 0, 11, 0]"] ;
30 -> 32 ;
33 [label="gini = 0.0\nsamples = 22\nvalue = [0, 0, 0, 22, 0]"] ;
29 -> 33 ;
34 [label="x[3] <= 1.5\ngini = 0.213\nsamples = 91\nvalue = [0, 0, 11, 80, 0]"] ;
26 -> 34 ;
35 [label="x[4] <= 2.5\ngini = 0.364\nsamples = 46\nvalue = [0, 0, 11, 35, 0]"] ;
34 -> 35 ;
36 [label="x[2] <= 3.5\ngini = 0.5\nsamples = 22\nvalue = [0, 0, 11, 11, 0]"] ;
35 -> 36 ;
37 [label="gini = 0.0\nsamples = 11\nvalue = [0, 0, 11, 0, 0]"] ;
36 -> 37 ;
38 [label="gini = 0.0\nsamples = 11\nvalue = [0, 0, 0, 11, 0]"] ;
36 -> 38 ;
39 [label="gini = 0.0\nsamples = 24\nvalue = [0, 0, 0, 24, 0]"] ;
35 -> 39 ;
40 [label="gini = 0.0\nsamples = 45\nvalue = [0, 0, 0, 45, 0]"] ;
34 -> 40 ;
41 [label="gini = 0.0\nsamples = 193\nvalue = [0, 0, 0, 193, 0]"] ;
25 -> 41 ;
42 [label="gini = 0.0\nsamples = 296\nvalue = [0, 0, 0, 296, 0]"] ;
6 -> 42 ;
43 [label="x[0] <= 1.5\ngini = 0.431\nsamples = 867\nvalue = [0, 0, 55, 624, 188]"] ;
3 -> 43 ;
44 [label="x[7] <= 1.5\ngini = 0.22\nsamples = 437\nvalue = [0, 0, 55, 382, 0]"] ;
43 -> 44 ;
45 [label="gini = 0.0\nsamples = 215\nvalue = [0, 0, 0, 215, 0]"] ;
44 -> 45 ;
46 [label="x[6] <= 2.5\ngini = 0.373\nsamples = 222\nvalue = [0, 0, 55, 167, 0]"] ;
44 -> 46 ;
47 [label="x[4] <= 1.5\ngini = 0.463\nsamples = 151\nvalue = [0, 0, 55, 96, 0]"] ;
46 -> 47 ;
48 [label="x[5] <= 1.5\ngini = 0.44\nsamples = 52\nvalue = [0, 0, 35, 17, 0]"] ;
47 -> 48 ;
49 [label="gini = 0.0\nsamples = 26\nvalue = [0, 0, 26, 0, 0]"] ;
48 -> 49 ;
50 [label="x[3] <= 2.5\ngini = 0.453\nsamples = 26\nvalue = [0, 0, 9, 17, 0]"] ;
48 -> 50 ;
51 [label="x[2] <= 3.5\ngini = 0.459\nsamples = 14\nvalue = [0, 0, 9, 5, 0]"] ;
50 -> 51 ;
52 [label="x[2] <= 2.5\ngini = 0.18\nsamples = 10\nvalue = [0, 0, 9, 1, 0]"] ;
51 -> 52 ;
53 [label="gini = 0.0\nsamples = 7\nvalue = [0, 0, 7, 0, 0]"] ;
52 -> 53 ;
54 [label="x[3] <= 1.5\ngini = 0.444\nsamples = 3\nvalue = [0, 0, 2, 1, 0]"] ;
52 -> 54 ;
55 [label="gini = 0.0\nsamples = 2\nvalue = [0, 0, 2, 0, 0]"] ;
54 -> 55 ;
56 [label="gini = 0.0\nsamples = 1\nvalue = [0, 0, 0, 1, 0]"] ;
54 -> 56 ;
57 [label="gini = 0.0\nsamples = 4\nvalue = [0, 0, 0, 4, 0]"] ;
51 -> 57 ;
58 [label="gini = 0.0\nsamples = 12\nvalue = [0, 0, 0, 12, 0]"] ;
50 -> 58 ;
59 [label="x[3] <= 1.5\ngini = 0.322\nsamples = 99\nvalue = [0, 0, 20, 79, 0]"] ;
47 -> 59 ;
60 [label="x[2] <= 3.5\ngini = 0.493\nsamples = 25\nvalue = [0, 0, 14, 11, 0]"] ;
59 -> 60 ;
61 [label="x[4] <= 2.5\ngini = 0.388\nsamples = 19\nvalue = [0, 0, 14, 5, 0]"] ;
60 -> 61 ;
62 [label="gini = 0.0\nsamples = 10\nvalue = [0, 0, 10, 0, 0]"] ;
61 -> 62 ;
63 [label="x[2] <= 1.5\ngini = 0.494\nsamples = 9\nvalue = [0, 0, 4, 5, 0]"] ;
61 -> 63 ;
64 [label="gini = 0.0\nsamples = 4\nvalue = [0, 0, 4, 0, 0]"] ;
63 -> 64 ;
65 [label="gini = 0.0\nsamples = 5\nvalue = [0, 0, 0, 5, 0]"] ;
63 -> 65 ;
66 [label="gini = 0.0\nsamples = 6\nvalue = [0, 0, 0, 6, 0]"] ;
60 -> 66 ;
67 [label="x[3] <= 2.5\ngini = 0.149\nsamples = 74\nvalue = [0, 0, 6, 68, 0]"] ;
59 -> 67 ;
68 [label="x[2] <= 2.5\ngini = 0.375\nsamples = 24\nvalue = [0, 0, 6, 18, 0]"] ;
67 -> 68 ;
69 [label="x[4] <= 2.5\ngini = 0.496\nsamples = 11\nvalue = [0, 0, 6, 5, 0]"] ;
68 -> 69 ;
70 [label="gini = 0.0\nsamples = 6\nvalue = [0, 0, 6, 0, 0]"] ;
69 -> 70 ;
71 [label="gini = 0.0\nsamples = 5\nvalue = [0, 0, 0, 5, 0]"] ;
69 -> 71 ;
72 [label="gini = 0.0\nsamples = 13\nvalue = [0, 0, 0, 13, 0]"] ;
68 -> 72 ;
73 [label="gini = 0.0\nsamples = 50\nvalue = [0, 0, 0, 50, 0]"] ;
67 -> 73 ;
74 [label="gini = 0.0\nsamples = 71\nvalue = [0, 0, 0, 71, 0]"] ;
46 -> 74 ;
75 [label="x[7] <= 1.5\ngini = 0.492\nsamples = 430\nvalue = [0, 0, 0, 242, 188]"] ;
43 -> 75 ;
76 [label="x[4] <= 1.5\ngini = 0.456\nsamples = 225\nvalue = [0, 0, 0, 79, 146]"] ;
75 -> 76 ;
77 [label="x[5] <= 1.5\ngini = 0.428\nsamples = 74\nvalue = [0, 0, 0, 51, 23]"] ;
76 -> 77 ;
78 [label="gini = 0.0\nsamples = 39\nvalue = [0, 0, 0, 39, 0]"] ;
77 -> 78 ;
79 [label="x[3] <= 2.5\ngini = 0.451\nsamples = 35\nvalue = [0, 0, 0, 12, 23]"] ;
77 -> 79 ;
80 [label="x[2] <= 2.5\ngini = 0.444\nsamples = 18\nvalue = [0, 0, 0, 12, 6]"] ;
79 -> 80 ;
81 [label="gini = 0.0\nsamples = 10\nvalue = [0, 0, 0, 10, 0]"] ;
80 -> 81 ;
82 [label="x[3] <= 1.5\ngini = 0.375\nsamples = 8\nvalue = [0, 0, 0, 2, 6]"] ;
80 -> 82 ;
83 [label="x[2] <= 3.5\ngini = 0.5\nsamples = 4\nvalue = [0, 0, 0, 2, 2]"] ;
82 -> 83 ;
84 [label="gini = 0.0\nsamples = 2\nvalue = [0, 0, 0, 2, 0]"] ;
83 -> 84 ;
85 [label="gini = 0.0\nsamples = 2\nvalue = [0, 0, 0, 0, 2]"] ;
83 -> 85 ;
86 [label="gini = 0.0\nsamples = 4\nvalue = [0, 0, 0, 0, 4]"] ;
82 -> 86 ;
87 [label="gini = 0.0\nsamples = 17\nvalue = [0, 0, 0, 0, 17]"] ;
79 -> 87 ;
88 [label="x[3] <= 2.5\ngini = 0.302\nsamples = 151\nvalue = [0, 0, 0, 28, 123]"] ;
76 -> 88 ;
89 [label="x[4] <= 2.5\ngini = 0.46\nsamples = 78\nvalue = [0, 0, 0, 28, 50]"] ;
88 -> 89 ;
90 [label="x[2] <= 2.5\ngini = 0.482\nsamples = 42\nvalue = [0, 0, 0, 25, 17]"] ;
89 -> 90 ;
91 [label="gini = 0.0\nsamples = 20\nvalue = [0, 0, 0, 20, 0]"] ;
90 -> 91 ;
92 [label="x[3] <= 1.5\ngini = 0.351\nsamples = 22\nvalue = [0, 0, 0, 5, 17]"] ;
90 -> 92 ;
93 [label="x[2] <= 3.5\ngini = 0.496\nsamples = 11\nvalue = [0, 0, 0, 5, 6]"] ;
92 -> 93 ;
94 [label="gini = 0.0\nsamples = 5\nvalue = [0, 0, 0, 5, 0]"] ;
93 -> 94 ;
95 [label="gini = 0.0\nsamples = 6\nvalue = [0, 0, 0, 0, 6]"] ;
93 -> 95 ;
96 [label="gini = 0.0\nsamples = 11\nvalue = [0, 0, 0, 0, 11]"] ;
92 -> 96 ;
97 [label="x[2] <= 1.5\ngini = 0.153\nsamples = 36\nvalue = [0, 0, 0, 3, 33]"] ;
89 -> 97 ;
98 [label="x[3] <= 1.5\ngini = 0.5\nsamples = 6\nvalue = [0, 0, 0, 3, 3]"] ;
97 -> 98 ;
99 [label="gini = 0.0\nsamples = 3\nvalue = [0, 0, 0, 3, 0]"] ;
98 -> 99 ;
100 [label="gini = 0.0\nsamples = 3\nvalue = [0, 0, 0, 0, 3]"] ;
98 -> 100 ;
101 [label="gini = 0.0\nsamples = 30\nvalue = [0, 0, 0, 0, 30]"] ;
97 -> 101 ;
102 [label="gini = 0.0\nsamples = 73\nvalue = [0, 0, 0, 0, 73]"] ;
88 -> 102 ;
103 [label="x[6] <= 2.5\ngini = 0.326\nsamples = 205\nvalue = [0, 0, 0, 163, 42]"] ;
75 -> 103 ;
104 [label="gini = 0.0\nsamples = 139\nvalue = [0, 0, 0, 139, 0]"] ;
103 -> 104 ;
105 [label="x[4] <= 1.5\ngini = 0.463\nsamples = 66\nvalue = [0, 0, 0, 24, 42]"] ;
103 -> 105 ;
106 [label="x[5] <= 1.5\ngini = 0.423\nsamples = 23\nvalue = [0, 0, 0, 16, 7]"] ;
105 -> 106 ;
107 [label="gini = 0.0\nsamples = 12\nvalue = [0, 0, 0, 12, 0]"] ;
106 -> 107 ;
108 [label="x[3] <= 2.5\ngini = 0.463\nsamples = 11\nvalue = [0, 0, 0, 4, 7]"] ;
106 -> 108 ;
109 [label="x[2] <= 2.5\ngini = 0.444\nsamples = 6\nvalue = [0, 0, 0, 4, 2]"] ;
108 -> 109 ;
110 [label="gini = 0.0\nsamples = 3\nvalue = [0, 0, 0, 3, 0]"] ;
109 -> 110 ;
111 [label="x[3] <= 1.5\ngini = 0.444\nsamples = 3\nvalue = [0, 0, 0, 1, 2]"] ;
109 -> 111 ;
112 [label="x[2] <= 3.5\ngini = 0.5\nsamples = 2\nvalue = [0, 0, 0, 1, 1]"] ;
111 -> 112 ;
113 [label="gini = 0.0\nsamples = 1\nvalue = [0, 0, 0, 1, 0]"] ;
112 -> 113 ;
114 [label="gini = 0.0\nsamples = 1\nvalue = [0, 0, 0, 0, 1]"] ;
112 -> 114 ;
115 [label="gini = 0.0\nsamples = 1\nvalue = [0, 0, 0, 0, 1]"] ;
111 -> 115 ;
116 [label="gini = 0.0\nsamples = 5\nvalue = [0, 0, 0, 0, 5]"] ;
108 -> 116 ;
117 [label="x[3] <= 1.5\ngini = 0.303\nsamples = 43\nvalue = [0, 0, 0, 8, 35]"] ;
105 -> 117 ;
118 [label="x[2] <= 3.5\ngini = 0.48\nsamples = 10\nvalue = [0, 0, 0, 6, 4]"] ;
117 -> 118 ;
119 [label="x[4] <= 2.5\ngini = 0.375\nsamples = 8\nvalue = [0, 0, 0, 6, 2]"] ;
118 -> 119 ;
120 [label="gini = 0.0\nsamples = 4\nvalue = [0, 0, 0, 4, 0]"] ;
119 -> 120 ;
121 [label="x[2] <= 1.5\ngini = 0.5\nsamples = 4\nvalue = [0, 0, 0, 2, 2]"] ;
119 -> 121 ;
122 [label="gini = 0.0\nsamples = 2\nvalue = [0, 0, 0, 2, 0]"] ;
121 -> 122 ;
123 [label="gini = 0.0\nsamples = 2\nvalue = [0, 0, 0, 0, 2]"] ;
121 -> 123 ;
124 [label="gini = 0.0\nsamples = 2\nvalue = [0, 0, 0, 0, 2]"] ;
118 -> 124 ;
125 [label="x[3] <= 2.5\ngini = 0.114\nsamples = 33\nvalue = [0, 0, 0, 2, 31]"] ;
117 -> 125 ;
126 [label="x[2] <= 2.5\ngini = 0.298\nsamples = 11\nvalue = [0, 0, 0, 2, 9]"] ;
125 -> 126 ;
127 [label="x[4] <= 2.5\ngini = 0.48\nsamples = 5\nvalue = [0, 0, 0, 2, 3]"] ;
126 -> 127 ;
128 [label="gini = 0.0\nsamples = 2\nvalue = [0, 0, 0, 2, 0]"] ;
127 -> 128 ;
129 [label="gini = 0.0\nsamples = 3\nvalue = [0, 0, 0, 0, 3]"] ;
127 -> 129 ;
130 [label="gini = 0.0\nsamples = 6\nvalue = [0, 0, 0, 0, 6]"] ;
126 -> 130 ;
131 [label="gini = 0.0\nsamples = 22\nvalue = [0, 0, 0, 0, 22]"] ;
125 -> 131 ;
132 [label="x[1] <= 2.5\ngini = 0.485\nsamples = 1308\nvalue = [0, 0, 0, 540, 768]"] ;
2 -> 132 ;
133 [label="x[7] <= 1.5\ngini = 0.492\nsamples = 869\nvalue = [0, 0, 0, 488, 381]"] ;
132 -> 133 ;
134 [label="x[4] <= 1.5\ngini = 0.452\nsamples = 428\nvalue = [0, 0, 0, 148, 280]"] ;
133 -> 134 ;
135 [label="x[5] <= 1.5\ngini = 0.459\nsamples = 146\nvalue = [0, 0, 0, 94, 52]"] ;
134 -> 135 ;
136 [label="gini = 0.0\nsamples = 73\nvalue = [0, 0, 0, 73, 0]"] ;
135 -> 136 ;
137 [label="x[3] <= 2.5\ngini = 0.41\nsamples = 73\nvalue = [0, 0, 0, 21, 52]"] ;
135 -> 137 ;
138 [label="x[2] <= 2.5\ngini = 0.494\nsamples = 38\nvalue = [0, 0, 0, 21, 17]"] ;
137 -> 138 ;
139 [label="gini = 0.0\nsamples = 16\nvalue = [0, 0, 0, 16, 0]"] ;
138 -> 139 ;
140 [label="x[2] <= 3.5\ngini = 0.351\nsamples = 22\nvalue = [0, 0, 0, 5, 17]"] ;
138 -> 140 ;
141 [label="x[3] <= 1.5\ngini = 0.496\nsamples = 11\nvalue = [0, 0, 0, 5, 6]"] ;
140 -> 141 ;
142 [label="gini = 0.0\nsamples = 5\nvalue = [0, 0, 0, 5, 0]"] ;
141 -> 142 ;
143 [label="gini = 0.0\nsamples = 6\nvalue = [0, 0, 0, 0, 6]"] ;
141 -> 143 ;
144 [label="gini = 0.0\nsamples = 11\nvalue = [0, 0, 0, 0, 11]"] ;
140 -> 144 ;
145 [label="gini = 0.0\nsamples = 35\nvalue = [0, 0, 0, 0, 35]"] ;
137 -> 145 ;
146 [label="x[3] <= 1.5\ngini = 0.31\nsamples = 282\nvalue = [0, 0, 0, 54, 228]"] ;
134 -> 146 ;
147 [label="x[2] <= 1.5\ngini = 0.499\nsamples = 76\nvalue = [0, 0, 0, 40, 36]"] ;
146 -> 147 ;
148 [label="gini = 0.0\nsamples = 21\nvalue = [0, 0, 0, 21, 0]"] ;
147 -> 148 ;
149 [label="x[4] <= 2.5\ngini = 0.452\nsamples = 55\nvalue = [0, 0, 0, 19, 36]"] ;
147 -> 149 ;
150 [label="x[2] <= 3.5\ngini = 0.417\nsamples = 27\nvalue = [0, 0, 0, 19, 8]"] ;
149 -> 150 ;
151 [label="gini = 0.0\nsamples = 19\nvalue = [0, 0, 0, 19, 0]"] ;
150 -> 151 ;
152 [label="gini = 0.0\nsamples = 8\nvalue = [0, 0, 0, 0, 8]"] ;
150 -> 152 ;
153 [label="gini = 0.0\nsamples = 28\nvalue = [0, 0, 0, 0, 28]"] ;
149 -> 153 ;
154 [label="x[3] <= 2.5\ngini = 0.127\nsamples = 206\nvalue = [0, 0, 0, 14, 192]"] ;
146 -> 154 ;
155 [label="x[2] <= 2.5\ngini = 0.334\nsamples = 66\nvalue = [0, 0, 0, 14, 52]"] ;
154 -> 155 ;
156 [label="x[4] <= 2.5\ngini = 0.499\nsamples = 29\nvalue = [0, 0, 0, 14, 15]"] ;
155 -> 156 ;
157 [label="gini = 0.0\nsamples = 14\nvalue = [0, 0, 0, 14, 0]"] ;
156 -> 157 ;
158 [label="gini = 0.0\nsamples = 15\nvalue = [0, 0, 0, 0, 15]"] ;
156 -> 158 ;
159 [label="gini = 0.0\nsamples = 37\nvalue = [0, 0, 0, 0, 37]"] ;
155 -> 159 ;
160 [label="gini = 0.0\nsamples = 140\nvalue = [0, 0, 0, 0, 140]"] ;
154 -> 160 ;
161 [label="x[6] <= 2.5\ngini = 0.353\nsamples = 441\nvalue = [0, 0, 0, 340, 101]"] ;
133 -> 161 ;
162 [label="gini = 0.0\nsamples = 287\nvalue = [0, 0, 0, 287, 0]"] ;
161 -> 162 ;
163 [label="x[3] <= 2.5\ngini = 0.451\nsamples = 154\nvalue = [0, 0, 0, 53, 101]"] ;
161 -> 163 ;
164 [label="x[4] <= 2.5\ngini = 0.499\nsamples = 80\nvalue = [0, 0, 0, 42, 38]"] ;
163 -> 164 ;
165 [label="x[2] <= 3.5\ngini = 0.417\nsamples = 54\nvalue = [0, 0, 0, 38, 16]"] ;
164 -> 165 ;
166 [label="x[2] <= 2.5\ngini = 0.245\nsamples = 42\nvalue = [0, 0, 0, 36, 6]"] ;
165 -> 166 ;
167 [label="gini = 0.0\nsamples = 26\nvalue = [0, 0, 0, 26, 0]"] ;
166 -> 167 ;
168 [label="x[3] <= 1.5\ngini = 0.469\nsamples = 16\nvalue = [0, 0, 0, 10, 6]"] ;
166 -> 168 ;
169 [label="gini = 0.0\nsamples = 8\nvalue = [0, 0, 0, 8, 0]"] ;
168 -> 169 ;
170 [label="x[4] <= 1.5\ngini = 0.375\nsamples = 8\nvalue = [0, 0, 0, 2, 6]"] ;
168 -> 170 ;
171 [label="x[5] <= 1.5\ngini = 0.5\nsamples = 4\nvalue = [0, 0, 0, 2, 2]"] ;
170 -> 171 ;
172 [label="gini = 0.0\nsamples = 2\nvalue = [0, 0, 0, 2, 0]"] ;
171 -> 172 ;
173 [label="gini = 0.0\nsamples = 2\nvalue = [0, 0, 0, 0, 2]"] ;
171 -> 173 ;
174 [label="gini = 0.0\nsamples = 4\nvalue = [0, 0, 0, 0, 4]"] ;
170 -> 174 ;
175 [label="x[5] <= 1.5\ngini = 0.278\nsamples = 12\nvalue = [0, 0, 0, 2, 10]"] ;
165 -> 175 ;
176 [label="x[4] <= 1.5\ngini = 0.48\nsamples = 5\nvalue = [0, 0, 0, 2, 3]"] ;
175 -> 176 ;
177 [label="gini = 0.0\nsamples = 2\nvalue = [0, 0, 0, 2, 0]"] ;
176 -> 177 ;
178 [label="gini = 0.0\nsamples = 3\nvalue = [0, 0, 0, 0, 3]"] ;
176 -> 178 ;
179 [label="gini = 0.0\nsamples = 7\nvalue = [0, 0, 0, 0, 7]"] ;
175 -> 179 ;
180 [label="x[2] <= 1.5\ngini = 0.26\nsamples = 26\nvalue = [0, 0, 0, 4, 22]"] ;
164 -> 180 ;
181 [label="x[3] <= 1.5\ngini = 0.49\nsamples = 7\nvalue = [0, 0, 0, 4, 3]"] ;
180 -> 181 ;
182 [label="gini = 0.0\nsamples = 4\nvalue = [0, 0, 0, 4, 0]"] ;
181 -> 182 ;
183 [label="gini = 0.0\nsamples = 3\nvalue = [0, 0, 0, 0, 3]"] ;
181 -> 183 ;
184 [label="gini = 0.0\nsamples = 19\nvalue = [0, 0, 0, 0, 19]"] ;
180 -> 184 ;
185 [label="x[4] <= 1.5\ngini = 0.253\nsamples = 74\nvalue = [0, 0, 0, 11, 63]"] ;
163 -> 185 ;
186 [label="x[5] <= 1.5\ngini = 0.483\nsamples = 27\nvalue = [0, 0, 0, 11, 16]"] ;
185 -> 186 ;
187 [label="gini = 0.0\nsamples = 11\nvalue = [0, 0, 0, 11, 0]"] ;
186 -> 187 ;
188 [label="gini = 0.0\nsamples = 16\nvalue = [0, 0, 0, 0, 16]"] ;
186 -> 188 ;
189 [label="gini = 0.0\nsamples = 47\nvalue = [0, 0, 0, 0, 47]"] ;
185 -> 189 ;
190 [label="x[7] <= 1.5\ngini = 0.209\nsamples = 439\nvalue = [0, 0, 0, 52, 387]"] ;
132 -> 190 ;
191 [label="x[2] <= 1.5\ngini = 0.026\nsamples = 227\nvalue = [0, 0, 0, 3, 224]"] ;
190 -> 191 ;
192 [label="x[3] <= 1.5\ngini = 0.109\nsamples = 52\nvalue = [0, 0, 0, 3, 49]"] ;
191 -> 192 ;
193 [label="x[4] <= 1.5\ngini = 0.355\nsamples = 13\nvalue = [0, 0, 0, 3, 10]"] ;
192 -> 193 ;
194 [label="x[5] <= 1.5\ngini = 0.48\nsamples = 5\nvalue = [0, 0, 0, 3, 2]"] ;
193 -> 194 ;
195 [label="gini = 0.0\nsamples = 3\nvalue = [0, 0, 0, 3, 0]"] ;
194 -> 195 ;
196 [label="gini = 0.0\nsamples = 2\nvalue = [0, 0, 0, 0, 2]"] ;
194 -> 196 ;
197 [label="gini = 0.0\nsamples = 8\nvalue = [0, 0, 0, 0, 8]"] ;
193 -> 197 ;
198 [label="gini = 0.0\nsamples = 39\nvalue = [0, 0, 0, 0, 39]"] ;
192 -> 198 ;
199 [label="gini = 0.0\nsamples = 175\nvalue = [0, 0, 0, 0, 175]"] ;
191 -> 199 ;
200 [label="x[6] <= 2.5\ngini = 0.355\nsamples = 212\nvalue = [0, 0, 0, 49, 163]"] ;
190 -> 200 ;
201 [label="x[4] <= 1.5\ngini = 0.449\nsamples = 141\nvalue = [0, 0, 0, 48, 93]"] ;
200 -> 201 ;
202 [label="x[5] <= 1.5\ngini = 0.458\nsamples = 45\nvalue = [0, 0, 0, 29, 16]"] ;
201 -> 202 ;
203 [label="gini = 0.0\nsamples = 23\nvalue = [0, 0, 0, 23, 0]"] ;
202 -> 203 ;
204 [label="x[3] <= 2.5\ngini = 0.397\nsamples = 22\nvalue = [0, 0, 0, 6, 16]"] ;
202 -> 204 ;
205 [label="x[2] <= 3.5\ngini = 0.48\nsamples = 10\nvalue = [0, 0, 0, 6, 4]"] ;
204 -> 205 ;
206 [label="x[3] <= 1.5\ngini = 0.245\nsamples = 7\nvalue = [0, 0, 0, 6, 1]"] ;
205 -> 206 ;
207 [label="gini = 0.0\nsamples = 4\nvalue = [0, 0, 0, 4, 0]"] ;
206 -> 207 ;
208 [label="x[6] <= 1.5\ngini = 0.444\nsamples = 3\nvalue = [0, 0, 0, 2, 1]"] ;
206 -> 208 ;
209 [label="gini = 0.0\nsamples = 2\nvalue = [0, 0, 0, 2, 0]"] ;
208 -> 209 ;
210 [label="gini = 0.0\nsamples = 1\nvalue = [0, 0, 0, 0, 1]"] ;
208 -> 210 ;
211 [label="gini = 0.0\nsamples = 3\nvalue = [0, 0, 0, 0, 3]"] ;
205 -> 211 ;
212 [label="gini = 0.0\nsamples = 12\nvalue = [0, 0, 0, 0, 12]"] ;
204 -> 212 ;
213 [label="x[3] <= 2.5\ngini = 0.317\nsamples = 96\nvalue = [0, 0, 0, 19, 77]"] ;
201 -> 213 ;
214 [label="x[4] <= 2.5\ngini = 0.471\nsamples = 50\nvalue = [0, 0, 0, 19, 31]"] ;
213 -> 214 ;
215 [label="x[2] <= 2.5\ngini = 0.466\nsamples = 27\nvalue = [0, 0, 0, 17, 10]"] ;
214 -> 215 ;
216 [label="gini = 0.0\nsamples = 13\nvalue = [0, 0, 0, 13, 0]"] ;
215 -> 216 ;
217 [label="x[3] <= 1.5\ngini = 0.408\nsamples = 14\nvalue = [0, 0, 0, 4, 10]"] ;
215 -> 217 ;
218 [label="x[2] <= 3.5\ngini = 0.49\nsamples = 7\nvalue = [0, 0, 0, 4, 3]"] ;
217 -> 218 ;
219 [label="gini = 0.0\nsamples = 4\nvalue = [0, 0, 0, 4, 0]"] ;
218 -> 219 ;
220 [label="gini = 0.0\nsamples = 3\nvalue = [0, 0, 0, 0, 3]"] ;
218 -> 220 ;
221 [label="gini = 0.0\nsamples = 7\nvalue = [0, 0, 0, 0, 7]"] ;
217 -> 221 ;
222 [label="x[2] <= 1.5\ngini = 0.159\nsamples = 23\nvalue = [0, 0, 0, 2, 21]"] ;
214 -> 222 ;
223 [label="x[3] <= 1.5\ngini = 0.48\nsamples = 5\nvalue = [0, 0, 0, 2, 3]"] ;
222 -> 223 ;
224 [label="gini = 0.0\nsamples = 2\nvalue = [0, 0, 0, 2, 0]"] ;
223 -> 224 ;
225 [label="gini = 0.0\nsamples = 3\nvalue = [0, 0, 0, 0, 3]"] ;
223 -> 225 ;
226 [label="gini = 0.0\nsamples = 18\nvalue = [0, 0, 0, 0, 18]"] ;
222 -> 226 ;
227 [label="gini = 0.0\nsamples = 46\nvalue = [0, 0, 0, 0, 46]"] ;
213 -> 227 ;
228 [label="x[3] <= 1.5\ngini = 0.028\nsamples = 71\nvalue = [0, 0, 0, 1, 70]"] ;
200 -> 228 ;
229 [label="x[2] <= 1.5\ngini = 0.117\nsamples = 16\nvalue = [0, 0, 0, 1, 15]"] ;
228 -> 229 ;
230 [label="x[5] <= 1.5\ngini = 0.375\nsamples = 4\nvalue = [0, 0, 0, 1, 3]"] ;
229 -> 230 ;
231 [label="x[4] <= 2.0\ngini = 0.5\nsamples = 2\nvalue = [0, 0, 0, 1, 1]"] ;
230 -> 231 ;
232 [label="gini = 0.0\nsamples = 1\nvalue = [0, 0, 0, 1, 0]"] ;
231 -> 232 ;
233 [label="gini = 0.0\nsamples = 1\nvalue = [0, 0, 0, 0, 1]"] ;
231 -> 233 ;
234 [label="gini = 0.0\nsamples = 2\nvalue = [0, 0, 0, 0, 2]"] ;
230 -> 234 ;
235 [label="gini = 0.0\nsamples = 12\nvalue = [0, 0, 0, 0, 12]"] ;
229 -> 235 ;
236 [label="gini = 0.0\nsamples = 55\nvalue = [0, 0, 0, 0, 55]"] ;
228 -> 236 ;
237 [label="x[7] <= 1.5\ngini = 0.309\nsamples = 2599\nvalue = [0, 0, 0, 497, 2102]"] ;
1 -> 237 ;
238 [label="x[0] <= 1.5\ngini = 0.127\nsamples = 1302\nvalue = [0, 0, 0, 89, 1213]"] ;
237 -> 238 ;
239 [label="x[1] <= 4.5\ngini = 0.306\nsamples = 425\nvalue = [0, 0, 0, 80, 345]"] ;
238 -> 239 ;
240 [label="x[4] <= 1.5\ngini = 0.467\nsamples = 210\nvalue = [0, 0, 0, 78, 132]"] ;
239 -> 240 ;
241 [label="x[5] <= 1.5\ngini = 0.382\nsamples = 70\nvalue = [0, 0, 0, 52, 18]"] ;
240 -> 241 ;
242 [label="gini = 0.0\nsamples = 40\nvalue = [0, 0, 0, 40, 0]"] ;
241 -> 242 ;
243 [label="x[3] <= 2.5\ngini = 0.48\nsamples = 30\nvalue = [0, 0, 0, 12, 18]"] ;
241 -> 243 ;
244 [label="x[2] <= 2.5\ngini = 0.32\nsamples = 15\nvalue = [0, 0, 0, 12, 3]"] ;
243 -> 244 ;
245 [label="gini = 0.0\nsamples = 10\nvalue = [0, 0, 0, 10, 0]"] ;
244 -> 245 ;
246 [label="x[3] <= 1.5\ngini = 0.48\nsamples = 5\nvalue = [0, 0, 0, 2, 3]"] ;
244 -> 246 ;
247 [label="x[2] <= 3.5\ngini = 0.444\nsamples = 3\nvalue = [0, 0, 0, 2, 1]"] ;
246 -> 247 ;
248 [label="gini = 0.0\nsamples = 2\nvalue = [0, 0, 0, 2, 0]"] ;
247 -> 248 ;
249 [label="gini = 0.0\nsamples = 1\nvalue = [0, 0, 0, 0, 1]"] ;
247 -> 249 ;
250 [label="gini = 0.0\nsamples = 2\nvalue = [0, 0, 0, 0, 2]"] ;
246 -> 250 ;
251 [label="gini = 0.0\nsamples = 15\nvalue = [0, 0, 0, 0, 15]"] ;
243 -> 251 ;
252 [label="x[3] <= 2.5\ngini = 0.302\nsamples = 140\nvalue = [0, 0, 0, 26, 114]"] ;
240 -> 252 ;
253 [label="x[4] <= 2.5\ngini = 0.467\nsamples = 70\nvalue = [0, 0, 0, 26, 44]"] ;
252 -> 253 ;
254 [label="x[2] <= 2.5\ngini = 0.461\nsamples = 36\nvalue = [0, 0, 0, 23, 13]"] ;
253 -> 254 ;
255 [label="gini = 0.0\nsamples = 19\nvalue = [0, 0, 0, 19, 0]"] ;
254 -> 255 ;
256 [label="x[2] <= 3.5\ngini = 0.36\nsamples = 17\nvalue = [0, 0, 0, 4, 13]"] ;
254 -> 256 ;
257 [label="x[3] <= 1.5\ngini = 0.5\nsamples = 8\nvalue = [0, 0, 0, 4, 4]"] ;
256 -> 257 ;
258 [label="gini = 0.0\nsamples = 4\nvalue = [0, 0, 0, 4, 0]"] ;
257 -> 258 ;
259 [label="gini = 0.0\nsamples = 4\nvalue = [0, 0, 0, 0, 4]"] ;
257 -> 259 ;
260 [label="gini = 0.0\nsamples = 9\nvalue = [0, 0, 0, 0, 9]"] ;
256 -> 260 ;
261 [label="x[2] <= 1.5\ngini = 0.161\nsamples = 34\nvalue = [0, 0, 0, 3, 31]"] ;
253 -> 261 ;
262 [label="x[3] <= 1.5\ngini = 0.5\nsamples = 6\nvalue = [0, 0, 0, 3, 3]"] ;
261 -> 262 ;
263 [label="gini = 0.0\nsamples = 3\nvalue = [0, 0, 0, 3, 0]"] ;
262 -> 263 ;
264 [label="gini = 0.0\nsamples = 3\nvalue = [0, 0, 0, 0, 3]"] ;
262 -> 264 ;
265 [label="gini = 0.0\nsamples = 28\nvalue = [0, 0, 0, 0, 28]"] ;
261 -> 265 ;
266 [label="gini = 0.0\nsamples = 70\nvalue = [0, 0, 0, 0, 70]"] ;
252 -> 266 ;
267 [label="x[2] <= 1.5\ngini = 0.018\nsamples = 215\nvalue = [0, 0, 0, 2, 213]"] ;
239 -> 267 ;
268 [label="x[3] <= 1.5\ngini = 0.07\nsamples = 55\nvalue = [0, 0, 0, 2, 53]"] ;
267 -> 268 ;
269 [label="x[5] <= 1.5\ngini = 0.26\nsamples = 13\nvalue = [0, 0, 0, 2, 11]"] ;
268 -> 269 ;
270 [label="x[4] <= 1.5\ngini = 0.48\nsamples = 5\nvalue = [0, 0, 0, 2, 3]"] ;
269 -> 270 ;
271 [label="gini = 0.0\nsamples = 2\nvalue = [0, 0, 0, 2, 0]"] ;
270 -> 271 ;
272 [label="gini = 0.0\nsamples = 3\nvalue = [0, 0, 0, 0, 3]"] ;
270 -> 272 ;
273 [label="gini = 0.0\nsamples = 8\nvalue = [0, 0, 0, 0, 8]"] ;
269 -> 273 ;
274 [label="gini = 0.0\nsamples = 42\nvalue = [0, 0, 0, 0, 42]"] ;
268 -> 274 ;
275 [label="gini = 0.0\nsamples = 160\nvalue = [0, 0, 0, 0, 160]"] ;
267 -> 275 ;
276 [label="x[3] <= 1.5\ngini = 0.02\nsamples = 877\nvalue = [0, 0, 0, 9, 868]"] ;
238 -> 276 ;
277 [label="x[2] <= 1.5\ngini = 0.079\nsamples = 218\nvalue = [0, 0, 0, 9, 209]"] ;
276 -> 277 ;
278 [label="x[4] <= 1.5\ngini = 0.262\nsamples = 58\nvalue = [0, 0, 0, 9, 49]"] ;
277 -> 278 ;
279 [label="x[5] <= 1.5\ngini = 0.5\nsamples = 18\nvalue = [0, 0, 0, 9, 9]"] ;
278 -> 279 ;
280 [label="gini = 0.0\nsamples = 9\nvalue = [0, 0, 0, 9, 0]"] ;
279 -> 280 ;
281 [label="gini = 0.0\nsamples = 9\nvalue = [0, 0, 0, 0, 9]"] ;
279 -> 281 ;
282 [label="gini = 0.0\nsamples = 40\nvalue = [0, 0, 0, 0, 40]"] ;
278 -> 282 ;
283 [label="gini = 0.0\nsamples = 160\nvalue = [0, 0, 0, 0, 160]"] ;
277 -> 283 ;
284 [label="gini = 0.0\nsamples = 659\nvalue = [0, 0, 0, 0, 659]"] ;
276 -> 284 ;
285 [label="x[6] <= 2.5\ngini = 0.431\nsamples = 1297\nvalue = [0, 0, 0, 408, 889]"] ;
237 -> 285 ;
286 [label="x[4] <= 1.5\ngini = 0.494\nsamples = 864\nvalue = [0, 0, 0, 383, 481]"] ;
285 -> 286 ;
287 [label="x[5] <= 1.5\ngini = 0.421\nsamples = 286\nvalue = [0, 0, 0, 200, 86]"] ;
286 -> 287 ;
288 [label="gini = 0.0\nsamples = 138\nvalue = [0, 0, 0, 138, 0]"] ;
287 -> 288 ;
289 [label="x[3] <= 2.5\ngini = 0.487\nsamples = 148\nvalue = [0, 0, 0, 62, 86]"] ;
287 -> 289 ;
290 [label="x[2] <= 2.5\ngini = 0.432\nsamples = 73\nvalue = [0, 0, 0, 50, 23]"] ;
289 -> 290 ;
291 [label="gini = 0.0\nsamples = 38\nvalue = [0, 0, 0, 38, 0]"] ;
290 -> 291 ;
292 [label="x[3] <= 1.5\ngini = 0.451\nsamples = 35\nvalue = [0, 0, 0, 12, 23]"] ;
290 -> 292 ;
293 [label="x[2] <= 3.5\ngini = 0.492\nsamples = 16\nvalue = [0, 0, 0, 9, 7]"] ;
292 -> 293 ;
294 [label="gini = 0.0\nsamples = 7\nvalue = [0, 0, 0, 7, 0]"] ;
293 -> 294 ;
295 [label="x[0] <= 1.5\ngini = 0.346\nsamples = 9\nvalue = [0, 0, 0, 2, 7]"] ;
293 -> 295 ;
296 [label="x[1] <= 4.5\ngini = 0.444\nsamples = 3\nvalue = [0, 0, 0, 2, 1]"] ;
295 -> 296 ;
297 [label="gini = 0.0\nsamples = 2\nvalue = [0, 0, 0, 2, 0]"] ;
296 -> 297 ;
298 [label="gini = 0.0\nsamples = 1\nvalue = [0, 0, 0, 0, 1]"] ;
296 -> 298 ;
299 [label="gini = 0.0\nsamples = 6\nvalue = [0, 0, 0, 0, 6]"] ;
295 -> 299 ;
300 [label="x[0] <= 1.5\ngini = 0.266\nsamples = 19\nvalue = [0, 0, 0, 3, 16]"] ;
292 -> 300 ;
301 [label="x[1] <= 4.5\ngini = 0.49\nsamples = 7\nvalue = [0, 0, 0, 3, 4]"] ;
300 -> 301 ;
302 [label="gini = 0.0\nsamples = 3\nvalue = [0, 0, 0, 3, 0]"] ;
301 -> 302 ;
303 [label="gini = 0.0\nsamples = 4\nvalue = [0, 0, 0, 0, 4]"] ;
301 -> 303 ;
304 [label="gini = 0.0\nsamples = 12\nvalue = [0, 0, 0, 0, 12]"] ;
300 -> 304 ;
305 [label="x[0] <= 1.5\ngini = 0.269\nsamples = 75\nvalue = [0, 0, 0, 12, 63]"] ;
289 -> 305 ;
306 [label="x[1] <= 4.5\ngini = 0.499\nsamples = 25\nvalue = [0, 0, 0, 12, 13]"] ;
305 -> 306 ;
307 [label="gini = 0.0\nsamples = 12\nvalue = [0, 0, 0, 12, 0]"] ;
306 -> 307 ;
308 [label="gini = 0.0\nsamples = 13\nvalue = [0, 0, 0, 0, 13]"] ;
306 -> 308 ;
309 [label="gini = 0.0\nsamples = 50\nvalue = [0, 0, 0, 0, 50]"] ;
305 -> 309 ;
310 [label="x[0] <= 1.5\ngini = 0.433\nsamples = 578\nvalue = [0, 0, 0, 183, 395]"] ;
286 -> 310 ;
311 [label="x[1] <= 4.5\ngini = 0.482\nsamples = 183\nvalue = [0, 0, 0, 109, 74]"] ;
310 -> 311 ;
312 [label="gini = 0.0\nsamples = 95\nvalue = [0, 0, 0, 95, 0]"] ;
311 -> 312 ;
313 [label="x[3] <= 2.5\ngini = 0.268\nsamples = 88\nvalue = [0, 0, 0, 14, 74]"] ;
311 -> 313 ;
314 [label="x[4] <= 2.5\ngini = 0.45\nsamples = 41\nvalue = [0, 0, 0, 14, 27]"] ;
313 -> 314 ;
315 [label="x[2] <= 2.5\ngini = 0.48\nsamples = 20\nvalue = [0, 0, 0, 12, 8]"] ;
314 -> 315 ;
316 [label="gini = 0.0\nsamples = 10\nvalue = [0, 0, 0, 10, 0]"] ;
315 -> 316 ;
317 [label="x[3] <= 1.5\ngini = 0.32\nsamples = 10\nvalue = [0, 0, 0, 2, 8]"] ;
315 -> 317 ;
318 [label="x[2] <= 3.5\ngini = 0.5\nsamples = 4\nvalue = [0, 0, 0, 2, 2]"] ;
317 -> 318 ;
319 [label="gini = 0.0\nsamples = 2\nvalue = [0, 0, 0, 2, 0]"] ;
318 -> 319 ;
320 [label="gini = 0.0\nsamples = 2\nvalue = [0, 0, 0, 0, 2]"] ;
318 -> 320 ;
321 [label="gini = 0.0\nsamples = 6\nvalue = [0, 0, 0, 0, 6]"] ;
317 -> 321 ;
322 [label="x[2] <= 1.5\ngini = 0.172\nsamples = 21\nvalue = [0, 0, 0, 2, 19]"] ;
314 -> 322 ;
323 [label="x[3] <= 1.5\ngini = 0.48\nsamples = 5\nvalue = [0, 0, 0, 2, 3]"] ;
322 -> 323 ;
324 [label="gini = 0.0\nsamples = 2\nvalue = [0, 0, 0, 2, 0]"] ;
323 -> 324 ;
325 [label="gini = 0.0\nsamples = 3\nvalue = [0, 0, 0, 0, 3]"] ;
323 -> 325 ;
326 [label="gini = 0.0\nsamples = 16\nvalue = [0, 0, 0, 0, 16]"] ;
322 -> 326 ;
327 [label="gini = 0.0\nsamples = 47\nvalue = [0, 0, 0, 0, 47]"] ;
313 -> 327 ;
328 [label="x[3] <= 2.5\ngini = 0.304\nsamples = 395\nvalue = [0, 0, 0, 74, 321]"] ;
310 -> 328 ;
329 [label="x[4] <= 2.5\ngini = 0.468\nsamples = 198\nvalue = [0, 0, 0, 74, 124]"] ;
328 -> 329 ;
330 [label="x[2] <= 2.5\ngini = 0.472\nsamples = 102\nvalue = [0, 0, 0, 63, 39]"] ;
329 -> 330 ;
331 [label="gini = 0.0\nsamples = 51\nvalue = [0, 0, 0, 51, 0]"] ;
330 -> 331 ;
332 [label="x[2] <= 3.5\ngini = 0.36\nsamples = 51\nvalue = [0, 0, 0, 12, 39]"] ;
330 -> 332 ;
333 [label="x[3] <= 1.5\ngini = 0.5\nsamples = 24\nvalue = [0, 0, 0, 12, 12]"] ;
332 -> 333 ;
334 [label="gini = 0.0\nsamples = 12\nvalue = [0, 0, 0, 12, 0]"] ;
333 -> 334 ;
335 [label="gini = 0.0\nsamples = 12\nvalue = [0, 0, 0, 0, 12]"] ;
333 -> 335 ;
336 [label="gini = 0.0\nsamples = 27\nvalue = [0, 0, 0, 0, 27]"] ;
332 -> 336 ;
337 [label="x[2] <= 1.5\ngini = 0.203\nsamples = 96\nvalue = [0, 0, 0, 11, 85]"] ;
329 -> 337 ;
338 [label="x[3] <= 1.5\ngini = 0.499\nsamples = 23\nvalue = [0, 0, 0, 11, 12]"] ;
337 -> 338 ;
339 [label="gini = 0.0\nsamples = 11\nvalue = [0, 0, 0, 11, 0]"] ;
338 -> 339 ;
340 [label="gini = 0.0\nsamples = 12\nvalue = [0, 0, 0, 0, 12]"] ;
338 -> 340 ;
341 [label="gini = 0.0\nsamples = 73\nvalue = [0, 0, 0, 0, 73]"] ;
337 -> 341 ;
342 [label="gini = 0.0\nsamples = 197\nvalue = [0, 0, 0, 0, 197]"] ;
328 -> 342 ;
343 [label="x[0] <= 1.5\ngini = 0.109\nsamples = 433\nvalue = [0, 0, 0, 25, 408]"] ;
285 -> 343 ;
344 [label="x[1] <= 4.5\ngini = 0.254\nsamples = 141\nvalue = [0, 0, 0, 21, 120]"] ;
343 -> 344 ;
345 [label="x[4] <= 1.5\ngini = 0.43\nsamples = 67\nvalue = [0, 0, 0, 21, 46]"] ;
344 -> 345 ;
346 [label="x[5] <= 1.5\ngini = 0.463\nsamples = 22\nvalue = [0, 0, 0, 14, 8]"] ;
345 -> 346 ;
347 [label="gini = 0.0\nsamples = 11\nvalue = [0, 0, 0, 11, 0]"] ;
346 -> 347 ;
348 [label="x[3] <= 2.5\ngini = 0.397\nsamples = 11\nvalue = [0, 0, 0, 3, 8]"] ;
346 -> 348 ;
349 [label="x[2] <= 2.5\ngini = 0.5\nsamples = 6\nvalue = [0, 0, 0, 3, 3]"] ;
348 -> 349 ;
350 [label="gini = 0.0\nsamples = 3\nvalue = [0, 0, 0, 3, 0]"] ;
349 -> 350 ;
351 [label="gini = 0.0\nsamples = 3\nvalue = [0, 0, 0, 0, 3]"] ;
349 -> 351 ;
352 [label="gini = 0.0\nsamples = 5\nvalue = [0, 0, 0, 0, 5]"] ;
348 -> 352 ;
353 [label="x[3] <= 1.5\ngini = 0.263\nsamples = 45\nvalue = [0, 0, 0, 7, 38]"] ;
345 -> 353 ;
354 [label="x[2] <= 3.5\ngini = 0.494\nsamples = 9\nvalue = [0, 0, 0, 5, 4]"] ;
353 -> 354 ;
355 [label="x[4] <= 2.5\ngini = 0.408\nsamples = 7\nvalue = [0, 0, 0, 5, 2]"] ;
354 -> 355 ;
356 [label="gini = 0.0\nsamples = 3\nvalue = [0, 0, 0, 3, 0]"] ;
355 -> 356 ;
357 [label="x[2] <= 1.5\ngini = 0.5\nsamples = 4\nvalue = [0, 0, 0, 2, 2]"] ;
355 -> 357 ;
358 [label="gini = 0.0\nsamples = 2\nvalue = [0, 0, 0, 2, 0]"] ;
357 -> 358 ;
359 [label="gini = 0.0\nsamples = 2\nvalue = [0, 0, 0, 0, 2]"] ;
357 -> 359 ;
360 [label="gini = 0.0\nsamples = 2\nvalue = [0, 0, 0, 0, 2]"] ;
354 -> 360 ;
361 [label="x[3] <= 2.5\ngini = 0.105\nsamples = 36\nvalue = [0, 0, 0, 2, 34]"] ;
353 -> 361 ;
362 [label="x[2] <= 2.5\ngini = 0.298\nsamples = 11\nvalue = [0, 0, 0, 2, 9]"] ;
361 -> 362 ;
363 [label="x[4] <= 2.5\ngini = 0.48\nsamples = 5\nvalue = [0, 0, 0, 2, 3]"] ;
362 -> 363 ;
364 [label="gini = 0.0\nsamples = 2\nvalue = [0, 0, 0, 2, 0]"] ;
363 -> 364 ;
365 [label="gini = 0.0\nsamples = 3\nvalue = [0, 0, 0, 0, 3]"] ;
363 -> 365 ;
366 [label="gini = 0.0\nsamples = 6\nvalue = [0, 0, 0, 0, 6]"] ;
362 -> 366 ;
367 [label="gini = 0.0\nsamples = 25\nvalue = [0, 0, 0, 0, 25]"] ;
361 -> 367 ;
368 [label="gini = 0.0\nsamples = 74\nvalue = [0, 0, 0, 0, 74]"] ;
344 -> 368 ;
369 [label="x[2] <= 1.5\ngini = 0.027\nsamples = 292\nvalue = [0, 0, 0, 4, 288]"] ;
343 -> 369 ;
370 [label="x[3] <= 1.5\ngini = 0.102\nsamples = 74\nvalue = [0, 0, 0, 4, 70]"] ;
369 -> 370 ;
371 [label="x[5] <= 1.5\ngini = 0.36\nsamples = 17\nvalue = [0, 0, 0, 4, 13]"] ;
370 -> 371 ;
372 [label="x[4] <= 1.5\ngini = 0.49\nsamples = 7\nvalue = [0, 0, 0, 4, 3]"] ;
371 -> 372 ;
373 [label="gini = 0.0\nsamples = 4\nvalue = [0, 0, 0, 4, 0]"] ;
372 -> 373 ;
374 [label="gini = 0.0\nsamples = 3\nvalue = [0, 0, 0, 0, 3]"] ;
372 -> 374 ;
375 [label="gini = 0.0\nsamples = 10\nvalue = [0, 0, 0, 0, 10]"] ;
371 -> 375 ;
376 [label="gini = 0.0\nsamples = 57\nvalue = [0, 0, 0, 0, 57]"] ;
370 -> 376 ;
377 [label="gini = 0.0\nsamples = 218\nvalue = [0, 0, 0, 0, 218]"] ;
369 -> 377 ;
378 [label="gini = 0.0\nsamples = 3243\nvalue = [3243, 0, 0, 0, 0]"] ;
0 -> 378 [labeldistance=2.5, labelangle=-45, headlabel="False"] ;
}
